<?xml version="1.0"?>
<opencv_storage>
<stage1>
  <maxWeakCount>9</maxWeakCount>
  <stageThreshold>-1.5771011114120483e+00</stageThreshold>
  <weakClassifiers>
    <_>
      <internalNodes>
        0 -1 87190 -8.2160845398902893e-02</internalNodes>
      <leafValues>
        -9.1899442672729492e-01 -4.0990990400314331e-01</leafValues></_>
    <_>
      <internalNodes>
        0 -1 138301 -6.9819733500480652e-02</internalNodes>
      <leafValues>
        -8.1618738174438477e-01 -3.0785074457526207e-02</leafValues></_>
    <_>
      <internalNodes>
        0 -1 78881 2.3602176457643509e-02</internalNodes>
      <leafValues>
        -2.7313774824142456e-01 4.8558488488197327e-01</leafValues></_>
    <_>
      <internalNodes>
        0 -1 117256 2.7467824518680573e-02</internalNodes>
      <leafValues>
        -1.8858477473258972e-01 6.9827836751937866e-01</leafValues></_>
    <_>
      <internalNodes>
        0 -1 38870 -1.8002251163125038e-02</internalNodes>
      <leafValues>
        5.7157963514328003e-01 -1.8700103461742401e-01</leafValues></_>
    <_>
      <internalNodes>
        0 -1 4413 -4.3208442628383636e-02</internalNodes>
      <leafValues>
        -5.2343100309371948e-01 2.4528013169765472e-01</leafValues></_>
    <_>
      <internalNodes>
        0 -1 861 5.1867067813873291e-01</internalNodes>
      <leafValues>
        1.7615532875061035e-01 -1.</leafValues></_>
    <_>
      <internalNodes>
        0 -1 81490 2.1692289039492607e-02</internalNodes>
      <leafValues>
        -2.2116479277610779e-01 6.7477816343307495e-01</leafValues></_>
    <_>
      <internalNodes>
        0 -1 53939 3.3421766012907028e-02</internalNodes>
      <leafValues>
        -1.4205865561962128e-01 7.3963415622711182e-01</leafValues></_></weakClassifiers></stage1>
</opencv_storage>
