<?xml version="1.0"?>
<opencv_storage>
<cascade>
  <stageType>BOOST</stageType>
  <featureType>HAAR</featureType>
  <height>24</height>
  <width>24</width>
  <stageParams>
    <boostType>GAB</boostType>
    <minHitRate>9.9500000476837158e-01</minHitRate>
    <maxFalseAlarm>5.0000000000000000e-01</maxFalseAlarm>
    <weightTrimRate>9.4999999999999996e-01</weightTrimRate>
    <maxDepth>1</maxDepth>
    <maxWeakCount>100</maxWeakCount></stageParams>
  <featureParams>
    <maxCatCount>0</maxCatCount>
    <featSize>1</featSize>
    <mode>BASIC</mode></featureParams>
  <stageNum>10</stageNum>
  <stages>
    <!-- stage 0 -->
    <_>
      <maxWeakCount>7</maxWeakCount>
      <stageThreshold>-1.7731907367706299e+00</stageThreshold>
      <weakClassifiers>
        <_>
          <internalNodes>
            0 -1 31 -3.1683051586151123e-01</internalNodes>
          <leafValues>
            -8.9130437374114990e-01 -8.3333335816860199e-02</leafValues></_>
        <_>
          <internalNodes>
            0 -1 87 -3.0353182554244995e-01</internalNodes>
          <leafValues>
            -9.2507219314575195e-01 1.2883087620139122e-02</leafValues></_>
        <_>
          <internalNodes>
            0 -1 30 -2.9747549444437027e-02</internalNodes>
          <leafValues>
            5.6513959169387817e-01 -3.1567719578742981e-01</leafValues></_>
        <_>
          <internalNodes>
            0 -1 19 -2.9657229781150818e-02</internalNodes>
          <leafValues>
            -7.3087769746780396e-01 1.7291328310966492e-01</leafValues></_>
        <_>
          <internalNodes>
            0 -1 98 1.0791824897751212e-03</internalNodes>
          <leafValues>
            -2.6231530308723450e-01 5.0252926349639893e-01</leafValues></_>
        <_>
          <internalNodes>
            0 -1 106 1.8573135603219271e-03</internalNodes>
          <leafValues>
            -1.2852458655834198e-01 6.6357105970382690e-01</leafValues></_>
        <_>
          <internalNodes>
            0 -1 8 4.6867989003658295e-02</internalNodes>
          <leafValues>
            -1.3877202570438385e-01 7.1573597192764282e-01</leafValues></_></weakClassifiers></_>
    <!-- stage 1 -->
    <_>
      <maxWeakCount>9</maxWeakCount>
      <stageThreshold>-1.5771011114120483e+00</stageThreshold>
      <weakClassifiers>
        <_>
          <internalNodes>
            0 -1 67 -8.2160845398902893e-02</internalNodes>
          <leafValues>
            -9.1899442672729492e-01 -4.0990990400314331e-01</leafValues></_>
        <_>
          <internalNodes>
            0 -1 99 -6.9819733500480652e-02</internalNodes>
          <leafValues>
            -8.1618738174438477e-01 -3.0785074457526207e-02</leafValues></_>
        <_>
          <internalNodes>
            0 -1 60 2.3602176457643509e-02</internalNodes>
          <leafValues>
            -2.7313774824142456e-01 4.8558488488197327e-01</leafValues></_>
        <_>
          <internalNodes>
            0 -1 85 2.7467824518680573e-02</internalNodes>
          <leafValues>
            -1.8858477473258972e-01 6.9827836751937866e-01</leafValues></_>
        <_>
          <internalNodes>
            0 -1 38 -1.8002251163125038e-02</internalNodes>
          <leafValues>
            5.7157963514328003e-01 -1.8700103461742401e-01</leafValues></_>
        <_>
          <internalNodes>
            0 -1 10 -4.3208442628383636e-02</internalNodes>
          <leafValues>
            -5.2343100309371948e-01 2.4528013169765472e-01</leafValues></_>
        <_>
          <internalNodes>
            0 -1 4 5.1867067813873291e-01</internalNodes>
          <leafValues>
            1.7615532875061035e-01 -1.</leafValues></_>
        <_>
          <internalNodes>
            0 -1 64 2.1692289039492607e-02</internalNodes>
          <leafValues>
            -2.2116479277610779e-01 6.7477816343307495e-01</leafValues></_>
        <_>
          <internalNodes>
            0 -1 46 3.3421766012907028e-02</internalNodes>
          <leafValues>
            -1.4205865561962128e-01 7.3963415622711182e-01</leafValues></_></weakClassifiers></_>
    <!-- stage 2 -->
    <_>
      <maxWeakCount>9</maxWeakCount>
      <stageThreshold>-1.4874666929244995e+00</stageThreshold>
      <weakClassifiers>
        <_>
          <internalNodes>
            0 -1 5 -4.7034585475921631e-01</internalNodes>
          <leafValues>
            -7.5907886028289795e-01 5.4838711023330688e-01</leafValues></_>
        <_>
          <internalNodes>
            0 -1 50 -5.6408353149890900e-02</internalNodes>
          <leafValues>
            -6.0639548301696777e-01 1.1060672253370285e-01</leafValues></_>
        <_>
          <internalNodes>
            0 -1 47 -6.4604729413986206e-02</internalNodes>
          <leafValues>
            6.3226193189620972e-01 -1.8923060595989227e-01</leafValues></_>
        <_>
          <internalNodes>
            0 -1 120 5.6441407650709152e-04</internalNodes>
          <leafValues>
            1.5049242973327637e-01 -6.7557126283645630e-01</leafValues></_>
        <_>
          <internalNodes>
            0 -1 40 -1.3452991843223572e-02</internalNodes>
          <leafValues>
            4.9682366847991943e-01 -1.8338119983673096e-01</leafValues></_>
        <_>
          <internalNodes>
            0 -1 112 -8.8931638747453690e-03</internalNodes>
          <leafValues>
            -6.3958710432052612e-01 1.4276838302612305e-01</leafValues></_>
        <_>
          <internalNodes>
            0 -1 86 -4.3085105717182159e-03</internalNodes>
          <leafValues>
            3.8912588357925415e-01 -2.8278446197509766e-01</leafValues></_>
        <_>
          <internalNodes>
            0 -1 101 -3.3334374427795410e-02</internalNodes>
          <leafValues>
            7.6453769207000732e-01 -1.6418941318988800e-01</leafValues></_>
        <_>
          <internalNodes>
            0 -1 78 -1.6388770192861557e-02</internalNodes>
          <leafValues>
            4.9939483404159546e-01 -1.6542723774909973e-01</leafValues></_></weakClassifiers></_>
    <!-- stage 3 -->
    <_>
      <maxWeakCount>14</maxWeakCount>
      <stageThreshold>-1.6518428325653076e+00</stageThreshold>
      <weakClassifiers>
        <_>
          <internalNodes>
            0 -1 15 -5.6606348603963852e-02</internalNodes>
          <leafValues>
            -8.5915493965148926e-01 -5.1111114025115967e-01</leafValues></_>
        <_>
          <internalNodes>
            0 -1 25 -2.0185092464089394e-02</internalNodes>
          <leafValues>
            -9.1955918073654175e-01 -1.1094332486391068e-01</leafValues></_>
        <_>
          <internalNodes>
            0 -1 102 -2.6675919070839882e-02</internalNodes>
          <leafValues>
            5.1535445451736450e-01 -1.6266171634197235e-01</leafValues></_>
        <_>
          <internalNodes>
            0 -1 44 2.5287663564085960e-02</internalNodes>
          <leafValues>
            -6.6777609288692474e-02 6.5343314409255981e-01</leafValues></_>
        <_>
          <internalNodes>
            0 -1 119 -8.7238010019063950e-04</internalNodes>
          <leafValues>
            -7.4779629707336426e-01 1.1361442506313324e-01</leafValues></_>
        <_>
          <internalNodes>
            0 -1 71 5.1926627755165100e-02</internalNodes>
          <leafValues>
            -1.7394296824932098e-01 4.6931132674217224e-01</leafValues></_>
        <_>
          <internalNodes>
            0 -1 52 1.8909033387899399e-02</internalNodes>
          <leafValues>
            -1.0931245982646942e-01 6.0376220941543579e-01</leafValues></_>
        <_>
          <internalNodes>
            0 -1 118 -5.5424927268177271e-04</internalNodes>
          <leafValues>
            -5.9457993507385254e-01 1.4003792405128479e-01</leafValues></_>
        <_>
          <internalNodes>
            0 -1 68 8.6223462130874395e-04</internalNodes>
          <leafValues>
            -2.2863730788230896e-01 2.9744449257850647e-01</leafValues></_>
        <_>
          <internalNodes>
            0 -1 63 -1.0668505728244781e-01</internalNodes>
          <leafValues>
            4.7606328129768372e-01 -1.5210729837417603e-01</leafValues></_>
        <_>
          <internalNodes>
            0 -1 89 -5.7169936597347260e-02</internalNodes>
          <leafValues>
            4.3555521965026855e-01 -1.6885095834732056e-01</leafValues></_>
        <_>
          <internalNodes>
            0 -1 95 3.7742339074611664e-02</internalNodes>
          <leafValues>
            -2.0374408364295959e-01 4.0240883827209473e-01</leafValues></_>
        <_>
          <internalNodes>
            0 -1 17 -1.8774803727865219e-02</internalNodes>
          <leafValues>
            5.9491336345672607e-01 -1.1845505982637405e-01</leafValues></_>
        <_>
          <internalNodes>
            0 -1 57 8.1208311021327972e-03</internalNodes>
          <leafValues>
            -2.9894590377807617e-01 3.7246042490005493e-01</leafValues></_></weakClassifiers></_>
    <!-- stage 4 -->
    <_>
      <maxWeakCount>12</maxWeakCount>
      <stageThreshold>-1.4563611745834351e+00</stageThreshold>
      <weakClassifiers>
        <_>
          <internalNodes>
            0 -1 43 1.2385351583361626e-02</internalNodes>
          <leafValues>
            -7.6258993148803711e-01 1.6666667163372040e-01</leafValues></_>
        <_>
          <internalNodes>
            0 -1 27 -1.0168464854359627e-02</internalNodes>
          <leafValues>
            3.0794209241867065e-01 -3.3968535065650940e-01</leafValues></_>
        <_>
          <internalNodes>
            0 -1 16 2.8841604944318533e-03</internalNodes>
          <leafValues>
            1.0116795450448990e-01 -6.0368758440017700e-01</leafValues></_>
        <_>
          <internalNodes>
            0 -1 83 -3.5498249530792236e-01</internalNodes>
          <leafValues>
            -9.5533174276351929e-01 1.1501323431730270e-01</leafValues></_>
        <_>
          <internalNodes>
            0 -1 54 -5.0852395594120026e-02</internalNodes>
          <leafValues>
            6.0088962316513062e-01 -1.7906068265438080e-01</leafValues></_>
        <_>
          <internalNodes>
            0 -1 24 -1.8027989193797112e-02</internalNodes>
          <leafValues>
            -7.0588493347167969e-01 8.7947838008403778e-02</leafValues></_>
        <_>
          <internalNodes>
            0 -1 22 -9.1464985162019730e-03</internalNodes>
          <leafValues>
            6.3570857048034668e-01 -1.0387596487998962e-01</leafValues></_>
        <_>
          <internalNodes>
            0 -1 106 1.9338852725923061e-03</internalNodes>
          <leafValues>
            -1.3949133455753326e-01 4.9142032861709595e-01</leafValues></_>
        <_>
          <internalNodes>
            0 -1 74 -2.5852926773950458e-04</internalNodes>
          <leafValues>
            -5.1649934053421021e-01 1.4816009998321533e-01</leafValues></_>
        <_>
          <internalNodes>
            0 -1 23 8.5260290652513504e-03</internalNodes>
          <leafValues>
            -2.0271511375904083e-01 3.5746830701828003e-01</leafValues></_>
        <_>
          <internalNodes>
            0 -1 116 -4.1313245310448110e-04</internalNodes>
          <leafValues>
            -5.9666055440902710e-01 1.2712146341800690e-01</leafValues></_>
        <_>
          <internalNodes>
            0 -1 72 -1.9993050955235958e-03</internalNodes>
          <leafValues>
            3.4785464406013489e-01 -2.1737754344940186e-01</leafValues></_></weakClassifiers></_>
    <!-- stage 5 -->
    <_>
      <maxWeakCount>11</maxWeakCount>
      <stageThreshold>-1.5075131654739380e+00</stageThreshold>
      <weakClassifiers>
        <_>
          <internalNodes>
            0 -1 29 1.1627933010458946e-02</internalNodes>
          <leafValues>
            -7.5601071119308472e-01 2.4324324727058411e-01</leafValues></_>
        <_>
          <internalNodes>
            0 -1 107 -2.0611248910427094e-03</internalNodes>
          <leafValues>
            2.5972148776054382e-01 -3.8547655940055847e-01</leafValues></_>
        <_>
          <internalNodes>
            0 -1 59 -5.7536046952009201e-03</internalNodes>
          <leafValues>
            1.1927144974470139e-01 -7.1267008781433105e-01</leafValues></_>
        <_>
          <internalNodes>
            0 -1 14 -2.6314439252018929e-02</internalNodes>
          <leafValues>
            6.2881141901016235e-02 -8.2457453012466431e-01</leafValues></_>
        <_>
          <internalNodes>
            0 -1 3 -3.6397317051887512e-01</internalNodes>
          <leafValues>
            -9.0777516365051270e-01 9.7183153033256531e-02</leafValues></_>
        <_>
          <internalNodes>
            0 -1 26 1.2322406284511089e-02</internalNodes>
          <leafValues>
            1.3197943568229675e-01 -5.0244510173797607e-01</leafValues></_>
        <_>
          <internalNodes>
            0 -1 73 -1.8566255457699299e-03</internalNodes>
          <leafValues>
            4.4283089041709900e-01 -1.9244298338890076e-01</leafValues></_>
        <_>
          <internalNodes>
            0 -1 113 -1.5757018700242043e-02</internalNodes>
          <leafValues>
            6.9403123855590820e-01 -7.7435106039047241e-02</leafValues></_>
        <_>
          <internalNodes>
            0 -1 37 -8.6000245064496994e-03</internalNodes>
          <leafValues>
            3.3563780784606934e-01 -1.9160848855972290e-01</leafValues></_>
        <_>
          <internalNodes>
            0 -1 93 -2.9038034845143557e-03</internalNodes>
          <leafValues>
            3.9785867929458618e-01 -1.7722839117050171e-01</leafValues></_>
        <_>
          <internalNodes>
            0 -1 82 2.8158689383417368e-03</internalNodes>
          <leafValues>
            1.1822839081287384e-01 -6.1587470769882202e-01</leafValues></_></weakClassifiers></_>
    <!-- stage 6 -->
    <_>
      <maxWeakCount>12</maxWeakCount>
      <stageThreshold>-1.4460594654083252e+00</stageThreshold>
      <weakClassifiers>
        <_>
          <internalNodes>
            0 -1 84 -2.7295523323118687e-03</internalNodes>
          <leafValues>
            1.4925372786819935e-02 -7.6944190263748169e-01</leafValues></_>
        <_>
          <internalNodes>
            0 -1 41 -1.5762135386466980e-02</internalNodes>
          <leafValues>
            3.4828007221221924e-01 -3.6481019854545593e-01</leafValues></_>
        <_>
          <internalNodes>
            0 -1 65 -6.3630156219005585e-02</internalNodes>
          <leafValues>
            1.3510876893997192e-01 -6.5436804294586182e-01</leafValues></_>
        <_>
          <internalNodes>
            0 -1 81 -2.3830947466194630e-03</internalNodes>
          <leafValues>
            4.2546853423118591e-01 -2.1420541405677795e-01</leafValues></_>
        <_>
          <internalNodes>
            0 -1 55 -2.7536861598491669e-03</internalNodes>
          <leafValues>
            5.0004398822784424e-01 -1.3656996190547943e-01</leafValues></_>
        <_>
          <internalNodes>
            0 -1 70 -4.0527269244194031e-02</internalNodes>
          <leafValues>
            1.8538881838321686e-01 -4.6159783005714417e-01</leafValues></_>
        <_>
          <internalNodes>
            0 -1 7 7.3368838056921959e-03</internalNodes>
          <leafValues>
            -1.1143440753221512e-01 7.5607728958129883e-01</leafValues></_>
        <_>
          <internalNodes>
            0 -1 35 3.7912596017122269e-03</internalNodes>
          <leafValues>
            -1.6562764346599579e-01 4.2795115709304810e-01</leafValues></_>
        <_>
          <internalNodes>
            0 -1 108 -1.0401993989944458e-02</internalNodes>
          <leafValues>
            6.4394754171371460e-01 -1.2851528823375702e-01</leafValues></_>
        <_>
          <internalNodes>
            0 -1 90 -1.7139844596385956e-02</internalNodes>
          <leafValues>
            -4.4431290030479431e-01 1.9911572337150574e-01</leafValues></_>
        <_>
          <internalNodes>
            0 -1 94 -1.8115690909326077e-03</internalNodes>
          <leafValues>
            5.1992082595825195e-01 -1.4229185879230499e-01</leafValues></_>
        <_>
          <internalNodes>
            0 -1 117 -2.8770590201020241e-02</internalNodes>
          <leafValues>
            -8.2362675666809082e-01 8.2706220448017120e-02</leafValues></_></weakClassifiers></_>
    <!-- stage 7 -->
    <_>
      <maxWeakCount>17</maxWeakCount>
      <stageThreshold>-1.5120203495025635e+00</stageThreshold>
      <weakClassifiers>
        <_>
          <internalNodes>
            0 -1 77 4.2024247348308563e-02</internalNodes>
          <leafValues>
            -7.4385964870452881e-01 4.0000000596046448e-01</leafValues></_>
        <_>
          <internalNodes>
            0 -1 100 -4.8064913600683212e-02</internalNodes>
          <leafValues>
            -6.1841666698455811e-01 -2.7623346075415611e-02</leafValues></_>
        <_>
          <internalNodes>
            0 -1 66 -1.9160407828167081e-03</internalNodes>
          <leafValues>
            4.7590455412864685e-01 -1.5052266418933868e-01</leafValues></_>
        <_>
          <internalNodes>
            0 -1 6 -1.4148022979497910e-02</internalNodes>
          <leafValues>
            -5.7922893762588501e-01 1.1574742197990417e-01</leafValues></_>
        <_>
          <internalNodes>
            0 -1 105 -4.9727614969015121e-03</internalNodes>
          <leafValues>
            4.3731012940406799e-01 -1.2885583937168121e-01</leafValues></_>
        <_>
          <internalNodes>
            0 -1 12 2.2734930738806725e-02</internalNodes>
          <leafValues>
            -4.4388987123966217e-02 7.0270973443984985e-01</leafValues></_>
        <_>
          <internalNodes>
            0 -1 111 2.4518443387933075e-04</internalNodes>
          <leafValues>
            1.6900289058685303e-01 -3.4199351072311401e-01</leafValues></_>
        <_>
          <internalNodes>
            0 -1 1 1.0665156878530979e-02</internalNodes>
          <leafValues>
            8.8206633925437927e-02 -6.3331031799316406e-01</leafValues></_>
        <_>
          <internalNodes>
            0 -1 20 -1.1731619946658611e-02</internalNodes>
          <leafValues>
            6.2273508310317993e-01 -1.2105586379766464e-01</leafValues></_>
        <_>
          <internalNodes>
            0 -1 92 -5.7943561114370823e-04</internalNodes>
          <leafValues>
            -5.6461566686630249e-01 1.2426553666591644e-01</leafValues></_>
        <_>
          <internalNodes>
            0 -1 61 -7.2475178167223930e-03</internalNodes>
          <leafValues>
            3.6038199067115784e-01 -1.8396373093128204e-01</leafValues></_>
        <_>
          <internalNodes>
            0 -1 18 -1.3603174011223018e-04</internalNodes>
          <leafValues>
            -3.4395635128021240e-01 1.5712976455688477e-01</leafValues></_>
        <_>
          <internalNodes>
            0 -1 48 -4.4492129236459732e-03</internalNodes>
          <leafValues>
            4.1588935256004333e-01 -1.5588150918483734e-01</leafValues></_>
        <_>
          <internalNodes>
            0 -1 110 -6.8513728678226471e-02</internalNodes>
          <leafValues>
            -7.6790636777877808e-01 8.3896316587924957e-02</leafValues></_>
        <_>
          <internalNodes>
            0 -1 9 2.6575936935842037e-03</internalNodes>
          <leafValues>
            1.1723624169826508e-01 -4.9557062983512878e-01</leafValues></_>
        <_>
          <internalNodes>
            0 -1 21 -3.6731556057929993e-02</internalNodes>
          <leafValues>
            7.1721285581588745e-01 -1.0577549040317535e-01</leafValues></_>
        <_>
          <internalNodes>
            0 -1 69 1.8168790847994387e-04</internalNodes>
          <leafValues>
            2.2601571679115295e-01 -3.0090036988258362e-01</leafValues></_></weakClassifiers></_>
    <!-- stage 8 -->
    <_>
      <maxWeakCount>14</maxWeakCount>
      <stageThreshold>-1.4315259456634521e+00</stageThreshold>
      <weakClassifiers>
        <_>
          <internalNodes>
            0 -1 36 -6.4645573496818542e-02</internalNodes>
          <leafValues>
            -7.4323141574859619e-01 7.3333334922790527e-01</leafValues></_>
        <_>
          <internalNodes>
            0 -1 11 -8.0783247947692871e-02</internalNodes>
          <leafValues>
            2.7624744176864624e-01 -3.5939323902130127e-01</leafValues></_>
        <_>
          <internalNodes>
            0 -1 58 -5.1454760134220123e-02</internalNodes>
          <leafValues>
            -4.9770045280456543e-01 1.3277910649776459e-01</leafValues></_>
        <_>
          <internalNodes>
            0 -1 88 -1.1307182721793652e-03</internalNodes>
          <leafValues>
            5.3151470422744751e-01 -1.1842083185911179e-01</leafValues></_>
        <_>
          <internalNodes>
            0 -1 80 -3.7645399570465088e-02</internalNodes>
          <leafValues>
            3.3219236135482788e-01 -1.9195376336574554e-01</leafValues></_>
        <_>
          <internalNodes>
            0 -1 13 -1.5735779702663422e-01</internalNodes>
          <leafValues>
            -9.7127133607864380e-01 1.0853146761655807e-01</leafValues></_>
        <_>
          <internalNodes>
            0 -1 115 5.3878448670729995e-04</internalNodes>
          <leafValues>
            4.2677678167819977e-02 -5.8281356096267700e-01</leafValues></_>
        <_>
          <internalNodes>
            0 -1 96 6.4248067792505026e-04</internalNodes>
          <leafValues>
            -1.3458341360092163e-01 4.4880053400993347e-01</leafValues></_>
        <_>
          <internalNodes>
            0 -1 122 -5.3113726899027824e-03</internalNodes>
          <leafValues>
            -8.8282370567321777e-01 1.0198038816452026e-01</leafValues></_>
        <_>
          <internalNodes>
            0 -1 39 -8.8443299755454063e-03</internalNodes>
          <leafValues>
            5.8662855625152588e-01 -1.3140143454074860e-01</leafValues></_>
        <_>
          <internalNodes>
            0 -1 79 7.0868246257305145e-03</internalNodes>
          <leafValues>
            -1.8706351518630981e-01 2.9235816001892090e-01</leafValues></_>
        <_>
          <internalNodes>
            0 -1 28 1.9599471124820411e-04</internalNodes>
          <leafValues>
            2.0011779665946960e-01 -3.2805353403091431e-01</leafValues></_>
        <_>
          <internalNodes>
            0 -1 32 1.3203482143580914e-02</internalNodes>
          <leafValues>
            -1.2486651539802551e-01 5.4307514429092407e-01</leafValues></_>
        <_>
          <internalNodes>
            0 -1 0 5.9246417135000229e-02</internalNodes>
          <leafValues>
            -8.7072007358074188e-02 6.1042660474777222e-01</leafValues></_></weakClassifiers></_>
    <!-- stage 9 -->
    <_>
      <maxWeakCount>21</maxWeakCount>
      <stageThreshold>-1.6490609645843506e+00</stageThreshold>
      <weakClassifiers>
        <_>
          <internalNodes>
            0 -1 75 3.8686633110046387e-02</internalNodes>
          <leafValues>
            -7.4494284391403198e-01 3.0434781312942505e-01</leafValues></_>
        <_>
          <internalNodes>
            0 -1 104 3.6152377724647522e-03</internalNodes>
          <leafValues>
            -2.7124899625778198e-01 5.4559749364852905e-01</leafValues></_>
        <_>
          <internalNodes>
            0 -1 62 -1.2152009643614292e-02</internalNodes>
          <leafValues>
            -5.1882606744766235e-01 9.9741630256175995e-02</leafValues></_>
        <_>
          <internalNodes>
            0 -1 1 -8.0707184970378876e-03</internalNodes>
          <leafValues>
            -5.7516247034072876e-01 8.9956551790237427e-02</leafValues></_>
        <_>
          <internalNodes>
            0 -1 107 -2.0730821415781975e-03</internalNodes>
          <leafValues>
            3.0678626894950867e-01 -1.6573114693164825e-01</leafValues></_>
        <_>
          <internalNodes>
            0 -1 34 2.4538621073588729e-04</internalNodes>
          <leafValues>
            1.8513634800910950e-01 -3.1942182779312134e-01</leafValues></_>
        <_>
          <internalNodes>
            0 -1 103 -1.8671037396416068e-03</internalNodes>
          <leafValues>
            4.3482854962348938e-01 -1.2674504518508911e-01</leafValues></_>
        <_>
          <internalNodes>
            0 -1 42 -3.9300117641687393e-03</internalNodes>
          <leafValues>
            -2.3445671796798706e-01 2.3401410877704620e-01</leafValues></_>
        <_>
          <internalNodes>
            0 -1 51 1.2021632865071297e-02</internalNodes>
          <leafValues>
            1.2853810191154480e-01 -4.3719345331192017e-01</leafValues></_>
        <_>
          <internalNodes>
            0 -1 2 -2.2222149372100830e-01</internalNodes>
          <leafValues>
            -7.1529179811477661e-01 5.1142554730176926e-02</leafValues></_>
        <_>
          <internalNodes>
            0 -1 121 -1.3877965975552797e-03</internalNodes>
          <leafValues>
            -5.7771760225296021e-01 7.5707480311393738e-02</leafValues></_>
        <_>
          <internalNodes>
            0 -1 49 -1.2696417048573494e-02</internalNodes>
          <leafValues>
            4.3267154693603516e-01 -1.2492342293262482e-01</leafValues></_>
        <_>
          <internalNodes>
            0 -1 109 -3.0042737489566207e-04</internalNodes>
          <leafValues>
            -3.5027912259101868e-01 1.3970915973186493e-01</leafValues></_>
        <_>
          <internalNodes>
            0 -1 56 -2.5064064189791679e-02</internalNodes>
          <leafValues>
            -6.5546780824661255e-01 6.3234463334083557e-02</leafValues></_>
        <_>
          <internalNodes>
            0 -1 33 -2.5593419559299946e-03</internalNodes>
          <leafValues>
            3.1175601482391357e-01 -1.7917269468307495e-01</leafValues></_>
        <_>
          <internalNodes>
            0 -1 114 1.0580550879240036e-03</internalNodes>
          <leafValues>
            1.0735236108303070e-01 -4.5817479491233826e-01</leafValues></_>
        <_>
          <internalNodes>
            0 -1 91 -1.4583343639969826e-02</internalNodes>
          <leafValues>
            1.1871175467967987e-01 -3.9755684137344360e-01</leafValues></_>
        <_>
          <internalNodes>
            0 -1 76 1.2530118692666292e-04</internalNodes>
          <leafValues>
            -2.2977095842361450e-01 2.2695599496364594e-01</leafValues></_>
        <_>
          <internalNodes>
            0 -1 97 3.5662415903061628e-03</internalNodes>
          <leafValues>
            -8.2219004631042480e-02 6.7297983169555664e-01</leafValues></_>
        <_>
          <internalNodes>
            0 -1 45 4.8240870237350464e-03</internalNodes>
          <leafValues>
            -1.1019149422645569e-01 4.9197354912757874e-01</leafValues></_>
        <_>
          <internalNodes>
            0 -1 53 -7.4956871569156647e-02</internalNodes>
          <leafValues>
            3.7704390287399292e-01 -1.3323622941970825e-01</leafValues></_></weakClassifiers></_></stages>
  <features>
    <_>
      <rects>
        <_>
          0 0 6 24 -1.</_>
        <_>
          3 0 3 24 2.</_></rects>
      <tilted>0</tilted></_>
    <_>
      <rects>
        <_>
          0 0 12 1 -1.</_>
        <_>
          6 0 6 1 2.</_></rects>
      <tilted>0</tilted></_>
    <_>
      <rects>
        <_>
          0 0 18 20 -1.</_>
        <_>
          0 0 9 10 2.</_>
        <_>
          9 10 9 10 2.</_></rects>
      <tilted>0</tilted></_>
    <_>
      <rects>
        <_>
          0 0 24 13 -1.</_>
        <_>
          12 0 12 13 2.</_></rects>
      <tilted>0</tilted></_>
    <_>
      <rects>
        <_>
          0 0 24 22 -1.</_>
        <_>
          12 0 12 22 2.</_></rects>
      <tilted>0</tilted></_>
    <_>
      <rects>
        <_>
          0 0 21 21 -1.</_>
        <_>
          0 7 21 7 2.</_></rects>
      <tilted>0</tilted></_>
    <_>
      <rects>
        <_>
          0 1 1 18 -1.</_>
        <_>
          0 10 1 9 2.</_></rects>
      <tilted>0</tilted></_>
    <_>
      <rects>
        <_>
          0 2 2 9 -1.</_>
        <_>
          1 2 1 9 2.</_></rects>
      <tilted>0</tilted></_>
    <_>
      <rects>
        <_>
          0 3 6 21 -1.</_>
        <_>
          3 3 3 21 2.</_></rects>
      <tilted>0</tilted></_>
    <_>
      <rects>
        <_>
          0 4 1 6 -1.</_>
        <_>
          0 7 1 3 2.</_></rects>
      <tilted>0</tilted></_>
    <_>
      <rects>
        <_>
          0 4 6 3 -1.</_>
        <_>
          0 5 6 1 2.</_></rects>
      <tilted>0</tilted></_>
    <_>
      <rects>
        <_>
          0 5 10 14 -1.</_>
        <_>
          5 5 5 14 2.</_></rects>
      <tilted>0</tilted></_>
    <_>
      <rects>
        <_>
          0 8 4 10 -1.</_>
        <_>
          2 8 2 10 2.</_></rects>
      <tilted>0</tilted></_>
    <_>
      <rects>
        <_>
          0 9 10 14 -1.</_>
        <_>
          0 16 10 7 2.</_></rects>
      <tilted>0</tilted></_>
    <_>
      <rects>
        <_>
          0 10 6 5 -1.</_>
        <_>
          2 10 2 5 2.</_></rects>
      <tilted>0</tilted></_>
    <_>
      <rects>
        <_>
          0 13 10 3 -1.</_>
        <_>
          0 14 10 1 2.</_></rects>
      <tilted>0</tilted></_>
    <_>
      <rects>
        <_>
          0 18 2 4 -1.</_>
        <_>
          0 20 2 2 2.</_></rects>
      <tilted>0</tilted></_>
    <_>
      <rects>
        <_>
          0 18 15 4 -1.</_>
        <_>
          0 20 15 2 2.</_></rects>
      <tilted>0</tilted></_>
    <_>
      <rects>
        <_>
          1 0 2 1 -1.</_>
        <_>
          2 0 1 1 2.</_></rects>
      <tilted>0</tilted></_>
    <_>
      <rects>
        <_>
          1 0 9 1 -1.</_>
        <_>
          4 0 3 1 2.</_></rects>
      <tilted>0</tilted></_>
    <_>
      <rects>
        <_>
          1 0 18 2 -1.</_>
        <_>
          1 0 9 1 2.</_>
        <_>
          10 1 9 1 2.</_></rects>
      <tilted>0</tilted></_>
    <_>
      <rects>
        <_>
          1 2 4 15 -1.</_>
        <_>
          3 2 2 15 2.</_></rects>
      <tilted>0</tilted></_>
    <_>
      <rects>
        <_>
          1 3 20 2 -1.</_>
        <_>
          1 3 10 1 2.</_>
        <_>
          11 4 10 1 2.</_></rects>
      <tilted>0</tilted></_>
    <_>
      <rects>
        <_>
          1 9 10 6 -1.</_>
        <_>
          1 9 5 3 2.</_>
        <_>
          6 12 5 3 2.</_></rects>
      <tilted>0</tilted></_>
    <_>
      <rects>
        <_>
          1 23 6 1 -1.</_>
        <_>
          3 23 2 1 2.</_></rects>
      <tilted>0</tilted></_>
    <_>
      <rects>
        <_>
          2 0 6 1 -1.</_>
        <_>
          4 0 2 1 2.</_></rects>
      <tilted>0</tilted></_>
    <_>
      <rects>
        <_>
          2 0 22 1 -1.</_>
        <_>
          13 0 11 1 2.</_></rects>
      <tilted>0</tilted></_>
    <_>
      <rects>
        <_>
          2 0 22 2 -1.</_>
        <_>
          2 1 22 1 2.</_></rects>
      <tilted>0</tilted></_>
    <_>
      <rects>
        <_>
          2 1 2 1 -1.</_>
        <_>
          3 1 1 1 2.</_></rects>
      <tilted>0</tilted></_>
    <_>
      <rects>
        <_>
          2 2 14 2 -1.</_>
        <_>
          2 2 7 1 2.</_>
        <_>
          9 3 7 1 2.</_></rects>
      <tilted>0</tilted></_>
    <_>
      <rects>
        <_>
          2 4 8 10 -1.</_>
        <_>
          2 4 4 5 2.</_>
        <_>
          6 9 4 5 2.</_></rects>
      <tilted>0</tilted></_>
    <_>
      <rects>
        <_>
          2 5 19 9 -1.</_>
        <_>
          2 8 19 3 2.</_></rects>
      <tilted>0</tilted></_>
    <_>
      <rects>
        <_>
          2 16 8 4 -1.</_>
        <_>
          2 16 4 2 2.</_>
        <_>
          6 18 4 2 2.</_></rects>
      <tilted>0</tilted></_>
    <_>
      <rects>
        <_>
          2 17 16 2 -1.</_>
        <_>
          2 17 8 1 2.</_>
        <_>
          10 18 8 1 2.</_></rects>
      <tilted>0</tilted></_>
    <_>
      <rects>
        <_>
          2 18 2 2 -1.</_>
        <_>
          3 18 1 2 2.</_></rects>
      <tilted>0</tilted></_>
    <_>
      <rects>
        <_>
          2 22 22 2 -1.</_>
        <_>
          2 22 11 1 2.</_>
        <_>
          13 23 11 1 2.</_></rects>
      <tilted>0</tilted></_>
    <_>
      <rects>
        <_>
          3 0 3 22 -1.</_>
        <_>
          4 0 1 22 2.</_></rects>
      <tilted>0</tilted></_>
    <_>
      <rects>
        <_>
          3 0 18 4 -1.</_>
        <_>
          3 0 9 2 2.</_>
        <_>
          12 2 9 2 2.</_></rects>
      <tilted>0</tilted></_>
    <_>
      <rects>
        <_>
          3 0 19 4 -1.</_>
        <_>
          3 2 19 2 2.</_></rects>
      <tilted>0</tilted></_>
    <_>
      <rects>
        <_>
          3 1 12 2 -1.</_>
        <_>
          3 1 6 1 2.</_>
        <_>
          9 2 6 1 2.</_></rects>
      <tilted>0</tilted></_>
    <_>
      <rects>
        <_>
          3 3 4 14 -1.</_>
        <_>
          3 3 2 7 2.</_>
        <_>
          5 10 2 7 2.</_></rects>
      <tilted>0</tilted></_>
    <_>
      <rects>
        <_>
          3 4 8 6 -1.</_>
        <_>
          3 4 4 3 2.</_>
        <_>
          7 7 4 3 2.</_></rects>
      <tilted>0</tilted></_>
    <_>
      <rects>
        <_>
          3 18 8 6 -1.</_>
        <_>
          7 18 4 6 2.</_></rects>
      <tilted>0</tilted></_>
    <_>
      <rects>
        <_>
          4 0 17 2 -1.</_>
        <_>
          4 1 17 1 2.</_></rects>
      <tilted>0</tilted></_>
    <_>
      <rects>
        <_>
          4 0 20 4 -1.</_>
        <_>
          4 2 20 2 2.</_></rects>
      <tilted>0</tilted></_>
    <_>
      <rects>
        <_>
          4 2 8 2 -1.</_>
        <_>
          4 2 4 1 2.</_>
        <_>
          8 3 4 1 2.</_></rects>
      <tilted>0</tilted></_>
    <_>
      <rects>
        <_>
          4 5 14 6 -1.</_>
        <_>
          4 5 7 3 2.</_>
        <_>
          11 8 7 3 2.</_></rects>
      <tilted>0</tilted></_>
    <_>
      <rects>
        <_>
          4 5 16 10 -1.</_>
        <_>
          4 5 8 5 2.</_>
        <_>
          12 10 8 5 2.</_></rects>
      <tilted>0</tilted></_>
    <_>
      <rects>
        <_>
          4 8 12 2 -1.</_>
        <_>
          4 8 6 1 2.</_>
        <_>
          10 9 6 1 2.</_></rects>
      <tilted>0</tilted></_>
    <_>
      <rects>
        <_>
          4 9 4 5 -1.</_>
        <_>
          6 9 2 5 2.</_></rects>
      <tilted>0</tilted></_>
    <_>
      <rects>
        <_>
          4 12 3 9 -1.</_>
        <_>
          5 12 1 9 2.</_></rects>
      <tilted>0</tilted></_>
    <_>
      <rects>
        <_>
          4 18 8 6 -1.</_>
        <_>
          8 18 4 6 2.</_></rects>
      <tilted>0</tilted></_>
    <_>
      <rects>
        <_>
          5 3 3 8 -1.</_>
        <_>
          5 7 3 4 2.</_></rects>
      <tilted>0</tilted></_>
    <_>
      <rects>
        <_>
          5 8 14 10 -1.</_>
        <_>
          5 13 14 5 2.</_></rects>
      <tilted>0</tilted></_>
    <_>
      <rects>
        <_>
          5 9 16 6 -1.</_>
        <_>
          5 12 16 3 2.</_></rects>
      <tilted>0</tilted></_>
    <_>
      <rects>
        <_>
          5 14 4 4 -1.</_>
        <_>
          5 14 2 2 2.</_>
        <_>
          7 16 2 2 2.</_></rects>
      <tilted>0</tilted></_>
    <_>
      <rects>
        <_>
          5 15 6 8 -1.</_>
        <_>
          5 15 3 4 2.</_>
        <_>
          8 19 3 4 2.</_></rects>
      <tilted>0</tilted></_>
    <_>
      <rects>
        <_>
          5 16 6 8 -1.</_>
        <_>
          5 20 6 4 2.</_></rects>
      <tilted>0</tilted></_>
    <_>
      <rects>
        <_>
          5 17 3 7 -1.</_>
        <_>
          6 17 1 7 2.</_></rects>
      <tilted>0</tilted></_>
    <_>
      <rects>
        <_>
          6 3 2 3 -1.</_>
        <_>
          6 4 2 1 2.</_></rects>
      <tilted>0</tilted></_>
    <_>
      <rects>
        <_>
          6 13 16 6 -1.</_>
        <_>
          6 13 8 3 2.</_>
        <_>
          14 16 8 3 2.</_></rects>
      <tilted>0</tilted></_>
    <_>
      <rects>
        <_>
          6 14 4 10 -1.</_>
        <_>
          6 14 2 5 2.</_>
        <_>
          8 19 2 5 2.</_></rects>
      <tilted>0</tilted></_>
    <_>
      <rects>
        <_>
          7 0 16 1 -1.</_>
        <_>
          15 0 8 1 2.</_></rects>
      <tilted>0</tilted></_>
    <_>
      <rects>
        <_>
          7 0 14 12 -1.</_>
        <_>
          7 6 14 6 2.</_></rects>
      <tilted>0</tilted></_>
    <_>
      <rects>
        <_>
          7 0 17 4 -1.</_>
        <_>
          7 2 17 2 2.</_></rects>
      <tilted>0</tilted></_>
    <_>
      <rects>
        <_>
          7 2 15 4 -1.</_>
        <_>
          12 2 5 4 2.</_></rects>
      <tilted>0</tilted></_>
    <_>
      <rects>
        <_>
          7 4 4 2 -1.</_>
        <_>
          7 4 2 1 2.</_>
        <_>
          9 5 2 1 2.</_></rects>
      <tilted>0</tilted></_>
    <_>
      <rects>
        <_>
          7 11 3 13 -1.</_>
        <_>
          8 11 1 13 2.</_></rects>
      <tilted>0</tilted></_>
    <_>
      <rects>
        <_>
          7 13 2 5 -1.</_>
        <_>
          8 13 1 5 2.</_></rects>
      <tilted>0</tilted></_>
    <_>
      <rects>
        <_>
          7 16 4 8 -1.</_>
        <_>
          9 16 2 8 2.</_></rects>
      <tilted>0</tilted></_>
    <_>
      <rects>
        <_>
          7 18 6 5 -1.</_>
        <_>
          9 18 2 5 2.</_></rects>
      <tilted>0</tilted></_>
    <_>
      <rects>
        <_>
          8 1 10 12 -1.</_>
        <_>
          8 1 5 6 2.</_>
        <_>
          13 7 5 6 2.</_></rects>
      <tilted>0</tilted></_>
    <_>
      <rects>
        <_>
          8 14 2 9 -1.</_>
        <_>
          9 14 1 9 2.</_></rects>
      <tilted>0</tilted></_>
    <_>
      <rects>
        <_>
          8 18 2 6 -1.</_>
        <_>
          8 18 1 3 2.</_>
        <_>
          9 21 1 3 2.</_></rects>
      <tilted>0</tilted></_>
    <_>
      <rects>
        <_>
          9 0 2 1 -1.</_>
        <_>
          10 0 1 1 2.</_></rects>
      <tilted>0</tilted></_>
    <_>
      <rects>
        <_>
          9 9 10 2 -1.</_>
        <_>
          14 9 5 2 2.</_></rects>
      <tilted>0</tilted></_>
    <_>
      <rects>
        <_>
          9 14 2 4 -1.</_>
        <_>
          9 14 1 2 2.</_>
        <_>
          10 16 1 2 2.</_></rects>
      <tilted>0</tilted></_>
    <_>
      <rects>
        <_>
          10 0 4 14 -1.</_>
        <_>
          12 0 2 14 2.</_></rects>
      <tilted>0</tilted></_>
    <_>
      <rects>
        <_>
          10 0 12 4 -1.</_>
        <_>
          10 2 12 2 2.</_></rects>
      <tilted>0</tilted></_>
    <_>
      <rects>
        <_>
          10 3 12 4 -1.</_>
        <_>
          10 3 6 2 2.</_>
        <_>
          16 5 6 2 2.</_></rects>
      <tilted>0</tilted></_>
    <_>
      <rects>
        <_>
          10 3 12 10 -1.</_>
        <_>
          16 3 6 10 2.</_></rects>
      <tilted>0</tilted></_>
    <_>
      <rects>
        <_>
          10 6 12 2 -1.</_>
        <_>
          10 6 6 1 2.</_>
        <_>
          16 7 6 1 2.</_></rects>
      <tilted>0</tilted></_>
    <_>
      <rects>
        <_>
          11 0 6 1 -1.</_>
        <_>
          14 0 3 1 2.</_></rects>
      <tilted>0</tilted></_>
    <_>
      <rects>
        <_>
          11 0 13 24 -1.</_>
        <_>
          11 12 13 12 2.</_></rects>
      <tilted>0</tilted></_>
    <_>
      <rects>
        <_>
          11 5 4 2 -1.</_>
        <_>
          11 5 2 1 2.</_>
        <_>
          13 6 2 1 2.</_></rects>
      <tilted>0</tilted></_>
    <_>
      <rects>
        <_>
          11 5 10 8 -1.</_>
        <_>
          11 5 5 4 2.</_>
        <_>
          16 9 5 4 2.</_></rects>
      <tilted>0</tilted></_>
    <_>
      <rects>
        <_>
          12 2 5 6 -1.</_>
        <_>
          12 5 5 3 2.</_></rects>
      <tilted>0</tilted></_>
    <_>
      <rects>
        <_>
          12 3 9 12 -1.</_>
        <_>
          12 7 9 4 2.</_></rects>
      <tilted>0</tilted></_>
    <_>
      <rects>
        <_>
          12 5 2 2 -1.</_>
        <_>
          12 5 1 1 2.</_>
        <_>
          13 6 1 1 2.</_></rects>
      <tilted>0</tilted></_>
    <_>
      <rects>
        <_>
          12 6 12 11 -1.</_>
        <_>
          18 6 6 11 2.</_></rects>
      <tilted>0</tilted></_>
    <_>
      <rects>
        <_>
          12 17 12 3 -1.</_>
        <_>
          18 17 6 3 2.</_></rects>
      <tilted>0</tilted></_>
    <_>
      <rects>
        <_>
          12 21 4 3 -1.</_>
        <_>
          12 22 4 1 2.</_></rects>
      <tilted>0</tilted></_>
    <_>
      <rects>
        <_>
          13 0 2 1 -1.</_>
        <_>
          14 0 1 1 2.</_></rects>
      <tilted>0</tilted></_>
    <_>
      <rects>
        <_>
          13 3 2 14 -1.</_>
        <_>
          13 3 1 7 2.</_>
        <_>
          14 10 1 7 2.</_></rects>
      <tilted>0</tilted></_>
    <_>
      <rects>
        <_>
          13 8 2 4 -1.</_>
        <_>
          13 8 1 2 2.</_>
        <_>
          14 10 1 2 2.</_></rects>
      <tilted>0</tilted></_>
    <_>
      <rects>
        <_>
          13 9 10 10 -1.</_>
        <_>
          18 9 5 10 2.</_></rects>
      <tilted>0</tilted></_>
    <_>
      <rects>
        <_>
          13 14 2 2 -1.</_>
        <_>
          13 14 1 1 2.</_>
        <_>
          14 15 1 1 2.</_></rects>
      <tilted>0</tilted></_>
    <_>
      <rects>
        <_>
          14 3 2 3 -1.</_>
        <_>
          15 3 1 3 2.</_></rects>
      <tilted>0</tilted></_>
    <_>
      <rects>
        <_>
          14 6 3 2 -1.</_>
        <_>
          14 7 3 1 2.</_></rects>
      <tilted>0</tilted></_>
    <_>
      <rects>
        <_>
          14 14 3 9 -1.</_>
        <_>
          15 14 1 9 2.</_></rects>
      <tilted>0</tilted></_>
    <_>
      <rects>
        <_>
          15 17 3 7 -1.</_>
        <_>
          16 17 1 7 2.</_></rects>
      <tilted>0</tilted></_>
    <_>
      <rects>
        <_>
          16 9 8 5 -1.</_>
        <_>
          20 9 4 5 2.</_></rects>
      <tilted>0</tilted></_>
    <_>
      <rects>
        <_>
          16 10 6 12 -1.</_>
        <_>
          16 10 3 6 2.</_>
        <_>
          19 16 3 6 2.</_></rects>
      <tilted>0</tilted></_>
    <_>
      <rects>
        <_>
          16 15 4 2 -1.</_>
        <_>
          16 15 2 1 2.</_>
        <_>
          18 16 2 1 2.</_></rects>
      <tilted>0</tilted></_>
    <_>
      <rects>
        <_>
          17 2 2 4 -1.</_>
        <_>
          17 2 1 2 2.</_>
        <_>
          18 4 1 2 2.</_></rects>
      <tilted>0</tilted></_>
    <_>
      <rects>
        <_>
          17 6 2 18 -1.</_>
        <_>
          17 6 1 9 2.</_>
        <_>
          18 15 1 9 2.</_></rects>
      <tilted>0</tilted></_>
    <_>
      <rects>
        <_>
          17 10 2 2 -1.</_>
        <_>
          18 10 1 2 2.</_></rects>
      <tilted>0</tilted></_>
    <_>
      <rects>
        <_>
          17 10 2 6 -1.</_>
        <_>
          17 10 1 3 2.</_>
        <_>
          18 13 1 3 2.</_></rects>
      <tilted>0</tilted></_>
    <_>
      <rects>
        <_>
          17 10 4 6 -1.</_>
        <_>
          17 10 2 3 2.</_>
        <_>
          19 13 2 3 2.</_></rects>
      <tilted>0</tilted></_>
    <_>
      <rects>
        <_>
          17 22 2 2 -1.</_>
        <_>
          18 22 1 2 2.</_></rects>
      <tilted>0</tilted></_>
    <_>
      <rects>
        <_>
          18 1 6 12 -1.</_>
        <_>
          18 7 6 6 2.</_></rects>
      <tilted>0</tilted></_>
    <_>
      <rects>
        <_>
          18 22 2 2 -1.</_>
        <_>
          19 22 1 2 2.</_></rects>
      <tilted>0</tilted></_>
    <_>
      <rects>
        <_>
          19 3 3 1 -1.</_>
        <_>
          20 3 1 1 2.</_></rects>
      <tilted>0</tilted></_>
    <_>
      <rects>
        <_>
          20 1 4 8 -1.</_>
        <_>
          22 1 2 8 2.</_></rects>
      <tilted>0</tilted></_>
    <_>
      <rects>
        <_>
          20 2 4 2 -1.</_>
        <_>
          20 3 4 1 2.</_></rects>
      <tilted>0</tilted></_>
    <_>
      <rects>
        <_>
          21 0 2 1 -1.</_>
        <_>
          22 0 1 1 2.</_></rects>
      <tilted>0</tilted></_>
    <_>
      <rects>
        <_>
          21 7 2 2 -1.</_>
        <_>
          21 7 1 1 2.</_>
        <_>
          22 8 1 1 2.</_></rects>
      <tilted>0</tilted></_>
    <_>
      <rects>
        <_>
          21 9 3 12 -1.</_>
        <_>
          21 15 3 6 2.</_></rects>
      <tilted>0</tilted></_>
    <_>
      <rects>
        <_>
          22 3 2 1 -1.</_>
        <_>
          23 3 1 1 2.</_></rects>
      <tilted>0</tilted></_>
    <_>
      <rects>
        <_>
          22 3 2 2 -1.</_>
        <_>
          22 3 1 1 2.</_>
        <_>
          23 4 1 1 2.</_></rects>
      <tilted>0</tilted></_>
    <_>
      <rects>
        <_>
          22 6 2 2 -1.</_>
        <_>
          22 6 1 1 2.</_>
        <_>
          23 7 1 1 2.</_></rects>
      <tilted>0</tilted></_>
    <_>
      <rects>
        <_>
          22 17 2 4 -1.</_>
        <_>
          22 17 1 2 2.</_>
        <_>
          23 19 1 2 2.</_></rects>
      <tilted>0</tilted></_>
    <_>
      <rects>
        <_>
          23 11 1 6 -1.</_>
        <_>
          23 14 1 3 2.</_></rects>
      <tilted>0</tilted></_></features></cascade>
</opencv_storage>
