<?xml version="1.0"?>
<opencv_storage>
<stage7>
  <maxWeakCount>17</maxWeakCount>
  <stageThreshold>-1.5120203495025635e+00</stageThreshold>
  <weakClassifiers>
    <_>
      <internalNodes>
        0 -1 106938 4.2024247348308563e-02</internalNodes>
      <leafValues>
        -7.4385964870452881e-01 4.0000000596046448e-01</leafValues></_>
    <_>
      <internalNodes>
        0 -1 143642 -4.8064913600683212e-02</internalNodes>
      <leafValues>
        -6.1841666698455811e-01 -2.7623346075415611e-02</leafValues></_>
    <_>
      <internalNodes>
        0 -1 83593 -1.9160407828167081e-03</internalNodes>
      <leafValues>
        4.7590455412864685e-01 -1.5052266418933868e-01</leafValues></_>
    <_>
      <internalNodes>
        0 -1 1144 -1.4148022979497910e-02</internalNodes>
      <leafValues>
        -5.7922893762588501e-01 1.1574742197990417e-01</leafValues></_>
    <_>
      <internalNodes>
        0 -1 149903 -4.9727614969015121e-03</internalNodes>
      <leafValues>
        4.3731012940406799e-01 -1.2885583937168121e-01</leafValues></_>
    <_>
      <internalNodes>
        0 -1 7500 2.2734930738806725e-02</internalNodes>
      <leafValues>
        -4.4388987123966217e-02 7.0270973443984985e-01</leafValues></_>
    <_>
      <internalNodes>
        0 -1 155212 2.4518443387933075e-04</internalNodes>
      <leafValues>
        1.6900289058685303e-01 -3.4199351072311401e-01</leafValues></_>
    <_>
      <internalNodes>
        0 -1 400 1.0665156878530979e-02</internalNodes>
      <leafValues>
        8.8206633925437927e-02 -6.3331031799316406e-01</leafValues></_>
    <_>
      <internalNodes>
        0 -1 14011 -1.1731619946658611e-02</internalNodes>
      <leafValues>
        6.2273508310317993e-01 -1.2105586379766464e-01</leafValues></_>
    <_>
      <internalNodes>
        0 -1 128040 -5.7943561114370823e-04</internalNodes>
      <leafValues>
        -5.6461566686630249e-01 1.2426553666591644e-01</leafValues></_>
    <_>
      <internalNodes>
        0 -1 79045 -7.2475178167223930e-03</internalNodes>
      <leafValues>
        3.6038199067115784e-01 -1.8396373093128204e-01</leafValues></_>
    <_>
      <internalNodes>
        0 -1 13392 -1.3603174011223018e-04</internalNodes>
      <leafValues>
        -3.4395635128021240e-01 1.5712976455688477e-01</leafValues></_>
    <_>
      <internalNodes>
        0 -1 55809 -4.4492129236459732e-03</internalNodes>
      <leafValues>
        4.1588935256004333e-01 -1.5588150918483734e-01</leafValues></_>
    <_>
      <internalNodes>
        0 -1 152408 -6.8513728678226471e-02</internalNodes>
      <leafValues>
        -7.6790636777877808e-01 8.3896316587924957e-02</leafValues></_>
    <_>
      <internalNodes>
        0 -1 4091 2.6575936935842037e-03</internalNodes>
      <leafValues>
        1.1723624169826508e-01 -4.9557062983512878e-01</leafValues></_>
    <_>
      <internalNodes>
        0 -1 15495 -3.6731556057929993e-02</internalNodes>
      <leafValues>
        7.1721285581588745e-01 -1.0577549040317535e-01</leafValues></_>
    <_>
      <internalNodes>
        0 -1 88853 1.8168790847994387e-04</internalNodes>
      <leafValues>
        2.2601571679115295e-01 -3.0090036988258362e-01</leafValues></_></weakClassifiers></stage7>
</opencv_storage>
