<?xml version="1.0"?>
<opencv_storage>
<stage2>
  <maxWeakCount>9</maxWeakCount>
  <stageThreshold>-1.4874666929244995e+00</stageThreshold>
  <weakClassifiers>
    <_>
      <internalNodes>
        0 -1 1037 -4.7034585475921631e-01</internalNodes>
      <leafValues>
        -7.5907886028289795e-01 5.4838711023330688e-01</leafValues></_>
    <_>
      <internalNodes>
        0 -1 57701 -5.6408353149890900e-02</internalNodes>
      <leafValues>
        -6.0639548301696777e-01 1.1060672253370285e-01</leafValues></_>
    <_>
      <internalNodes>
        0 -1 53990 -6.4604729413986206e-02</internalNodes>
      <leafValues>
        6.3226193189620972e-01 -1.8923060595989227e-01</leafValues></_>
    <_>
      <internalNodes>
        0 -1 161587 5.6441407650709152e-04</internalNodes>
      <leafValues>
        1.5049242973327637e-01 -6.7557126283645630e-01</leafValues></_>
    <_>
      <internalNodes>
        0 -1 40772 -1.3452991843223572e-02</internalNodes>
      <leafValues>
        4.9682366847991943e-01 -1.8338119983673096e-01</leafValues></_>
    <_>
      <internalNodes>
        0 -1 155789 -8.8931638747453690e-03</internalNodes>
      <leafValues>
        -6.3958710432052612e-01 1.4276838302612305e-01</leafValues></_>
    <_>
      <internalNodes>
        0 -1 122709 -4.3085105717182159e-03</internalNodes>
      <leafValues>
        3.8912588357925415e-01 -2.8278446197509766e-01</leafValues></_>
    <_>
      <internalNodes>
        0 -1 146776 -3.3334374427795410e-02</internalNodes>
      <leafValues>
        7.6453769207000732e-01 -1.6418941318988800e-01</leafValues></_>
    <_>
      <internalNodes>
        0 -1 107370 -1.6388770192861557e-02</internalNodes>
      <leafValues>
        4.9939483404159546e-01 -1.6542723774909973e-01</leafValues></_></weakClassifiers></stage2>
</opencv_storage>
