<?xml version="1.0"?>
<opencv_storage>
<stage9>
  <maxWeakCount>21</maxWeakCount>
  <stageThreshold>-1.6490609645843506e+00</stageThreshold>
  <weakClassifiers>
    <_>
      <internalNodes>
        0 -1 103804 3.8686633110046387e-02</internalNodes>
      <leafValues>
        -7.4494284391403198e-01 3.0434781312942505e-01</leafValues></_>
    <_>
      <internalNodes>
        0 -1 148879 3.6152377724647522e-03</internalNodes>
      <leafValues>
        -2.7124899625778198e-01 5.4559749364852905e-01</leafValues></_>
    <_>
      <internalNodes>
        0 -1 81272 -1.2152009643614292e-02</internalNodes>
      <leafValues>
        -5.1882606744766235e-01 9.9741630256175995e-02</leafValues></_>
    <_>
      <internalNodes>
        0 -1 400 -8.0707184970378876e-03</internalNodes>
      <leafValues>
        -5.7516247034072876e-01 8.9956551790237427e-02</leafValues></_>
    <_>
      <internalNodes>
        0 -1 150673 -2.0730821415781975e-03</internalNodes>
      <leafValues>
        3.0678626894950867e-01 -1.6573114693164825e-01</leafValues></_>
    <_>
      <internalNodes>
        0 -1 37200 2.4538621073588729e-04</internalNodes>
      <leafValues>
        1.8513634800910950e-01 -3.1942182779312134e-01</leafValues></_>
    <_>
      <internalNodes>
        0 -1 147727 -1.8671037396416068e-03</internalNodes>
      <leafValues>
        4.3482854962348938e-01 -1.2674504518508911e-01</leafValues></_>
    <_>
      <internalNodes>
        0 -1 48813 -3.9300117641687393e-03</internalNodes>
      <leafValues>
        -2.3445671796798706e-01 2.3401410877704620e-01</leafValues></_>
    <_>
      <internalNodes>
        0 -1 59808 1.2021632865071297e-02</internalNodes>
      <leafValues>
        1.2853810191154480e-01 -4.3719345331192017e-01</leafValues></_>
    <_>
      <internalNodes>
        0 -1 677 -2.2222149372100830e-01</internalNodes>
      <leafValues>
        -7.1529179811477661e-01 5.1142554730176926e-02</leafValues></_>
    <_>
      <internalNodes>
        0 -1 162029 -1.3877965975552797e-03</internalNodes>
      <leafValues>
        -5.7771760225296021e-01 7.5707480311393738e-02</leafValues></_>
    <_>
      <internalNodes>
        0 -1 56205 -1.2696417048573494e-02</internalNodes>
      <leafValues>
        4.3267154693603516e-01 -1.2492342293262482e-01</leafValues></_>
    <_>
      <internalNodes>
        0 -1 151863 -3.0042737489566207e-04</internalNodes>
      <leafValues>
        -3.5027912259101868e-01 1.3970915973186493e-01</leafValues></_>
    <_>
      <internalNodes>
        0 -1 69329 -2.5064064189791679e-02</internalNodes>
      <leafValues>
        -6.5546780824661255e-01 6.3234463334083557e-02</leafValues></_>
    <_>
      <internalNodes>
        0 -1 37083 -2.5593419559299946e-03</internalNodes>
      <leafValues>
        3.1175601482391357e-01 -1.7917269468307495e-01</leafValues></_>
    <_>
      <internalNodes>
        0 -1 158081 1.0580550879240036e-03</internalNodes>
      <leafValues>
        1.0735236108303070e-01 -4.5817479491233826e-01</leafValues></_>
    <_>
      <internalNodes>
        0 -1 127962 -1.4583343639969826e-02</internalNodes>
      <leafValues>
        1.1871175467967987e-01 -3.9755684137344360e-01</leafValues></_>
    <_>
      <internalNodes>
        0 -1 105374 1.2530118692666292e-04</internalNodes>
      <leafValues>
        -2.2977095842361450e-01 2.2695599496364594e-01</leafValues></_>
    <_>
      <internalNodes>
        0 -1 135048 3.5662415903061628e-03</internalNodes>
      <leafValues>
        -8.2219004631042480e-02 6.7297983169555664e-01</leafValues></_>
    <_>
      <internalNodes>
        0 -1 51441 4.8240870237350464e-03</internalNodes>
      <leafValues>
        -1.1019149422645569e-01 4.9197354912757874e-01</leafValues></_>
    <_>
      <internalNodes>
        0 -1 66613 -7.4956871569156647e-02</internalNodes>
      <leafValues>
        3.7704390287399292e-01 -1.3323622941970825e-01</leafValues></_></weakClassifiers></stage9>
</opencv_storage>
