<?xml version="1.0"?>
<opencv_storage>
<stage8>
  <maxWeakCount>14</maxWeakCount>
  <stageThreshold>-1.4315259456634521e+00</stageThreshold>
  <weakClassifiers>
    <_>
      <internalNodes>
        0 -1 38055 -6.4645573496818542e-02</internalNodes>
      <leafValues>
        -7.4323141574859619e-01 7.3333334922790527e-01</leafValues></_>
    <_>
      <internalNodes>
        0 -1 5282 -8.0783247947692871e-02</internalNodes>
      <leafValues>
        2.7624744176864624e-01 -3.5939323902130127e-01</leafValues></_>
    <_>
      <internalNodes>
        0 -1 69848 -5.1454760134220123e-02</internalNodes>
      <leafValues>
        -4.9770045280456543e-01 1.3277910649776459e-01</leafValues></_>
    <_>
      <internalNodes>
        0 -1 123840 -1.1307182721793652e-03</internalNodes>
      <leafValues>
        5.3151470422744751e-01 -1.1842083185911179e-01</leafValues></_>
    <_>
      <internalNodes>
        0 -1 108939 -3.7645399570465088e-02</internalNodes>
      <leafValues>
        3.3219236135482788e-01 -1.9195376336574554e-01</leafValues></_>
    <_>
      <internalNodes>
        0 -1 8586 -1.5735779702663422e-01</internalNodes>
      <leafValues>
        -9.7127133607864380e-01 1.0853146761655807e-01</leafValues></_>
    <_>
      <internalNodes>
        0 -1 159732 5.3878448670729995e-04</internalNodes>
      <leafValues>
        4.2677678167819977e-02 -5.8281356096267700e-01</leafValues></_>
    <_>
      <internalNodes>
        0 -1 132755 6.4248067792505026e-04</internalNodes>
      <leafValues>
        -1.3458341360092163e-01 4.4880053400993347e-01</leafValues></_>
    <_>
      <internalNodes>
        0 -1 162272 -5.3113726899027824e-03</internalNodes>
      <leafValues>
        -8.8282370567321777e-01 1.0198038816452026e-01</leafValues></_>
    <_>
      <internalNodes>
        0 -1 39307 -8.8443299755454063e-03</internalNodes>
      <leafValues>
        5.8662855625152588e-01 -1.3140143454074860e-01</leafValues></_>
    <_>
      <internalNodes>
        0 -1 108912 7.0868246257305145e-03</internalNodes>
      <leafValues>
        -1.8706351518630981e-01 2.9235816001892090e-01</leafValues></_>
    <_>
      <internalNodes>
        0 -1 26808 1.9599471124820411e-04</internalNodes>
      <leafValues>
        2.0011779665946960e-01 -3.2805353403091431e-01</leafValues></_>
    <_>
      <internalNodes>
        0 -1 36693 1.3203482143580914e-02</internalNodes>
      <leafValues>
        -1.2486651539802551e-01 5.4307514429092407e-01</leafValues></_>
    <_>
      <internalNodes>
        0 -1 238 5.9246417135000229e-02</internalNodes>
      <leafValues>
        -8.7072007358074188e-02 6.1042660474777222e-01</leafValues></_></weakClassifiers></stage8>
</opencv_storage>
